<?xml version="1.0"?>
<opencv_storage>
<cascade>
  <stageType>BOOST</stageType>
  <featureType>HAAR</featureType>
  <height>24</height>
  <width>24</width>
  <stageParams>
    <boostType>GAB</boostType>
    <minHitRate>9.9500000476837158e-01</minHitRate>
    <maxFalseAlarm>5.0000000000000000e-01</maxFalseAlarm>
    <weightTrimRate>9.4999998807907104e-01</weightTrimRate>
    <maxDepth>1</maxDepth>
    <maxWeakCount>100</maxWeakCount></stageParams>
  <featureParams>
    <maxCatCount>0</maxCatCount>
    <featSize>1</featSize>
    <mode>BASIC</mode></featureParams>
  <stageNum>13</stageNum>
  <stages>
    <!-- stage 0 -->
    <_>
      <maxWeakCount>2</maxWeakCount>
      <stageThreshold>-4.1301274299621582e-01</stageThreshold>
      <weakClassifiers>
        <_>
          <internalNodes>
            0 -1 5 -1.9017150625586510e-02</internalNodes>
          <leafValues>
            5.0000000000000000e-01 -9.6226418018341064e-01</leafValues></_>
        <_>
          <internalNodes>
            0 -1 4 -2.2350847721099854e-02</internalNodes>
          <leafValues>
            8.4784084558486938e-01 -9.1301274299621582e-01</leafValues></_></weakClassifiers></_>
    <!-- stage 1 -->
    <_>
      <maxWeakCount>2</maxWeakCount>
      <stageThreshold>-4.6896129846572876e-01</stageThreshold>
      <weakClassifiers>
        <_>
          <internalNodes>
            0 -1 18 3.2420195639133453e-02</internalNodes>
          <leafValues>
            -9.4999998807907104e-01 4.7368422150611877e-01</leafValues></_>
        <_>
          <internalNodes>
            0 -1 27 -6.8255537189543247e-03</internalNodes>
          <leafValues>
            5.4337853193283081e-01 -9.4264549016952515e-01</leafValues></_></weakClassifiers></_>
    <!-- stage 2 -->
    <_>
      <maxWeakCount>3</maxWeakCount>
      <stageThreshold>-1.3074235916137695e+00</stageThreshold>
      <weakClassifiers>
        <_>
          <internalNodes>
            0 -1 30 1.3527569826692343e-03</internalNodes>
          <leafValues>
            -9.1358023881912231e-01 2.9411765933036804e-01</leafValues></_>
        <_>
          <internalNodes>
            0 -1 11 -2.5381427258253098e-03</internalNodes>
          <leafValues>
            6.0294377803802490e-01 -8.2634323835372925e-01</leafValues></_>
        <_>
          <internalNodes>
            0 -1 34 -2.8546478133648634e-03</internalNodes>
          <leafValues>
            7.0602536201477051e-01 -7.7519798278808594e-01</leafValues></_></weakClassifiers></_>
    <!-- stage 3 -->
    <_>
      <maxWeakCount>3</maxWeakCount>
      <stageThreshold>-1.3605895042419434e+00</stageThreshold>
      <weakClassifiers>
        <_>
          <internalNodes>
            0 -1 7 1.9933478906750679e-03</internalNodes>
          <leafValues>
            -8.9221554994583130e-01 5.0000000000000000e-01</leafValues></_>
        <_>
          <internalNodes>
            0 -1 19 3.4554641693830490e-02</internalNodes>
          <leafValues>
            -8.4767764806747437e-01 3.5842713713645935e-01</leafValues></_>
        <_>
          <internalNodes>
            0 -1 9 6.1801290139555931e-03</internalNodes>
          <leafValues>
            -8.2680112123489380e-01 5.1823854446411133e-01</leafValues></_></weakClassifiers></_>
    <!-- stage 4 -->
    <_>
      <maxWeakCount>3</maxWeakCount>
      <stageThreshold>-6.6437703371047974e-01</stageThreshold>
      <weakClassifiers>
        <_>
          <internalNodes>
            0 -1 1 -3.3378276973962784e-02</internalNodes>
          <leafValues>
            7.5000000000000000e-01 -8.7134504318237305e-01</leafValues></_>
        <_>
          <internalNodes>
            0 -1 15 -4.8736231401562691e-03</internalNodes>
          <leafValues>
            8.2268655300140381e-01 -6.8927931785583496e-01</leafValues></_>
        <_>
          <internalNodes>
            0 -1 22 3.8795517757534981e-03</internalNodes>
          <leafValues>
            -6.0280919075012207e-01 8.9624732732772827e-01</leafValues></_></weakClassifiers></_>
    <!-- stage 5 -->
    <_>
      <maxWeakCount>3</maxWeakCount>
      <stageThreshold>-1.3068298101425171e+00</stageThreshold>
      <weakClassifiers>
        <_>
          <internalNodes>
            0 -1 10 7.3000453412532806e-03</internalNodes>
          <leafValues>
            -8.6127167940139771e-01 1.</leafValues></_>
        <_>
          <internalNodes>
            0 -1 32 6.3978037796914577e-03</internalNodes>
          <leafValues>
            -7.9237776994705200e-01 5.1799064874649048e-01</leafValues></_>
        <_>
          <internalNodes>
            0 -1 14 3.9118588902056217e-03</internalNodes>
          <leafValues>
            3.4681960940361023e-01 -1.</leafValues></_></weakClassifiers></_>
    <!-- stage 6 -->
    <_>
      <maxWeakCount>3</maxWeakCount>
      <stageThreshold>-1.2650442123413086e+00</stageThreshold>
      <weakClassifiers>
        <_>
          <internalNodes>
            0 -1 17 -1.2586133554577827e-02</internalNodes>
          <leafValues>
            7.5000000000000000e-01 -8.7134504318237305e-01</leafValues></_>
        <_>
          <internalNodes>
            0 -1 3 -5.3318925201892853e-02</internalNodes>
          <leafValues>
            4.5705464482307434e-01 -7.8942310810089111e-01</leafValues></_>
        <_>
          <internalNodes>
            0 -1 28 1.9554500468075275e-03</internalNodes>
          <leafValues>
            -8.5075378417968750e-01 5.0079554319381714e-01</leafValues></_></weakClassifiers></_>
    <!-- stage 7 -->
    <_>
      <maxWeakCount>3</maxWeakCount>
      <stageThreshold>-1.1404327154159546e+00</stageThreshold>
      <weakClassifiers>
        <_>
          <internalNodes>
            0 -1 15 9.7466688603162766e-03</internalNodes>
          <leafValues>
            -8.6046510934829712e-01 7.1428573131561279e-01</leafValues></_>
        <_>
          <internalNodes>
            0 -1 13 -1.5209179837256670e-03</internalNodes>
          <leafValues>
            4.8692640662193298e-01 -6.8222898244857788e-01</leafValues></_>
        <_>
          <internalNodes>
            0 -1 12 6.2575593590736389e-02</internalNodes>
          <leafValues>
            -7.6689404249191284e-01 5.2413904666900635e-01</leafValues></_></weakClassifiers></_>
    <!-- stage 8 -->
    <_>
      <maxWeakCount>3</maxWeakCount>
      <stageThreshold>-1.2926020622253418e+00</stageThreshold>
      <weakClassifiers>
        <_>
          <internalNodes>
            0 -1 31 2.4418734014034271e-02</internalNodes>
          <leafValues>
            -8.7058824300765991e-01 5.5555558204650879e-01</leafValues></_>
        <_>
          <internalNodes>
            0 -1 29 -2.5156354531645775e-03</internalNodes>
          <leafValues>
            3.4500491619110107e-01 -7.4284195899963379e-01</leafValues></_>
        <_>
          <internalNodes>
            0 -1 25 1.3379470910876989e-03</internalNodes>
          <leafValues>
            3.2082808017730713e-01 -1.</leafValues></_></weakClassifiers></_>
    <!-- stage 9 -->
    <_>
      <maxWeakCount>3</maxWeakCount>
      <stageThreshold>-1.3786132335662842e+00</stageThreshold>
      <weakClassifiers>
        <_>
          <internalNodes>
            0 -1 16 -8.2026282325387001e-03</internalNodes>
          <leafValues>
            7.5000000000000000e-01 -8.7134504318237305e-01</leafValues></_>
        <_>
          <internalNodes>
            0 -1 23 -1.6054882435128093e-03</internalNodes>
          <leafValues>
            3.9847597479820251e-01 -8.9083492755889893e-01</leafValues></_>
        <_>
          <internalNodes>
            0 -1 21 -6.3116792589426041e-03</internalNodes>
          <leafValues>
            -9.0579426288604736e-01 3.8356676697731018e-01</leafValues></_></weakClassifiers></_>
    <!-- stage 10 -->
    <_>
      <maxWeakCount>3</maxWeakCount>
      <stageThreshold>-9.2721515893936157e-01</stageThreshold>
      <weakClassifiers>
        <_>
          <internalNodes>
            0 -1 2 -3.3457750082015991e-01</internalNodes>
          <leafValues>
            1. -8.6127167940139771e-01</leafValues></_>
        <_>
          <internalNodes>
            0 -1 0 -1.4421008527278900e-02</internalNodes>
          <leafValues>
            5.4120546579360962e-01 -7.9365313053131104e-01</leafValues></_>
        <_>
          <internalNodes>
            0 -1 20 9.5728756859898567e-03</internalNodes>
          <leafValues>
            -6.0714894533157349e-01 8.8545835018157959e-01</leafValues></_></weakClassifiers></_>
    <!-- stage 11 -->
    <_>
      <maxWeakCount>3</maxWeakCount>
      <stageThreshold>-1.2933747768402100e+00</stageThreshold>
      <weakClassifiers>
        <_>
          <internalNodes>
            0 -1 6 4.6262526884675026e-03</internalNodes>
          <leafValues>
            -8.8304096460342407e-01 1.</leafValues></_>
        <_>
          <internalNodes>
            0 -1 33 8.1914383918046951e-03</internalNodes>
          <leafValues>
            -9.1812413930892944e-01 3.7362214922904968e-01</leafValues></_>
        <_>
          <internalNodes>
            0 -1 8 -5.3728828206658363e-03</internalNodes>
          <leafValues>
            5.9113878011703491e-01 -7.8395599126815796e-01</leafValues></_></weakClassifiers></_>
    <!-- stage 12 -->
    <_>
      <maxWeakCount>2</maxWeakCount>
      <stageThreshold>-1.8644440174102783e-01</stageThreshold>
      <weakClassifiers>
        <_>
          <internalNodes>
            0 -1 24 -6.6072575747966766e-02</internalNodes>
          <leafValues>
            1. -9.0532547235488892e-01</leafValues></_>
        <_>
          <internalNodes>
            0 -1 26 -1.1471255682408810e-02</internalNodes>
          <leafValues>
            7.1888107061386108e-01 -1.</leafValues></_></weakClassifiers></_></stages>
  <features>
    <_>
      <rects>
        <_>
          0 14 14 4 -1.</_>
        <_>
          0 14 7 2 2.</_>
        <_>
          7 16 7 2 2.</_></rects>
      <tilted>0</tilted></_>
    <_>
      <rects>
        <_>
          1 1 12 4 -1.</_>
        <_>
          1 1 6 2 2.</_>
        <_>
          7 3 6 2 2.</_></rects>
      <tilted>0</tilted></_>
    <_>
      <rects>
        <_>
          1 4 21 15 -1.</_>
        <_>
          8 4 7 15 3.</_></rects>
      <tilted>0</tilted></_>
    <_>
      <rects>
        <_>
          3 14 10 10 -1.</_>
        <_>
          8 14 5 10 2.</_></rects>
      <tilted>0</tilted></_>
    <_>
      <rects>
        <_>
          4 2 4 19 -1.</_>
        <_>
          6 2 2 19 2.</_></rects>
      <tilted>0</tilted></_>
    <_>
      <rects>
        <_>
          5 2 12 6 -1.</_>
        <_>
          5 4 12 2 3.</_></rects>
      <tilted>0</tilted></_>
    <_>
      <rects>
        <_>
          5 10 3 1 -1.</_>
        <_>
          6 10 1 1 3.</_></rects>
      <tilted>0</tilted></_>
    <_>
      <rects>
        <_>
          5 11 2 1 -1.</_>
        <_>
          6 11 1 1 2.</_></rects>
      <tilted>0</tilted></_>
    <_>
      <rects>
        <_>
          6 2 6 10 -1.</_>
        <_>
          8 2 2 10 3.</_></rects>
      <tilted>0</tilted></_>
    <_>
      <rects>
        <_>
          7 1 4 10 -1.</_>
        <_>
          7 1 2 5 2.</_>
        <_>
          9 6 2 5 2.</_></rects>
      <tilted>0</tilted></_>
    <_>
      <rects>
        <_>
          7 7 4 2 -1.</_>
        <_>
          7 7 2 1 2.</_>
        <_>
          9 8 2 1 2.</_></rects>
      <tilted>0</tilted></_>
    <_>
      <rects>
        <_>
          7 9 3 2 -1.</_>
        <_>
          8 9 1 2 3.</_></rects>
      <tilted>0</tilted></_>
    <_>
      <rects>
        <_>
          8 1 7 18 -1.</_>
        <_>
          8 7 7 6 3.</_></rects>
      <tilted>0</tilted></_>
    <_>
      <rects>
        <_>
          8 12 3 1 -1.</_>
        <_>
          9 12 1 1 3.</_></rects>
      <tilted>0</tilted></_>
    <_>
      <rects>
        <_>
          9 1 6 12 -1.</_>
        <_>
          11 1 2 12 3.</_></rects>
      <tilted>0</tilted></_>
    <_>
      <rects>
        <_>
          9 7 2 3 -1.</_>
        <_>
          9 8 2 1 3.</_></rects>
      <tilted>0</tilted></_>
    <_>
      <rects>
        <_>
          9 9 2 6 -1.</_>
        <_>
          10 9 1 6 2.</_></rects>
      <tilted>0</tilted></_>
    <_>
      <rects>
        <_>
          9 11 3 7 -1.</_>
        <_>
          10 11 1 7 3.</_></rects>
      <tilted>0</tilted></_>
    <_>
      <rects>
        <_>
          9 18 13 6 -1.</_>
        <_>
          9 20 13 2 3.</_></rects>
      <tilted>0</tilted></_>
    <_>
      <rects>
        <_>
          10 6 7 9 -1.</_>
        <_>
          10 9 7 3 3.</_></rects>
      <tilted>0</tilted></_>
    <_>
      <rects>
        <_>
          11 2 3 11 -1.</_>
        <_>
          12 2 1 11 3.</_></rects>
      <tilted>0</tilted></_>
    <_>
      <rects>
        <_>
          11 7 6 10 -1.</_>
        <_>
          11 7 3 5 2.</_>
        <_>
          14 12 3 5 2.</_></rects>
      <tilted>0</tilted></_>
    <_>
      <rects>
        <_>
          11 11 3 1 -1.</_>
        <_>
          12 11 1 1 3.</_></rects>
      <tilted>0</tilted></_>
    <_>
      <rects>
        <_>
          12 0 6 12 -1.</_>
        <_>
          14 0 2 12 3.</_></rects>
      <tilted>0</tilted></_>
    <_>
      <rects>
        <_>
          12 6 9 15 -1.</_>
        <_>
          12 11 9 5 3.</_></rects>
      <tilted>0</tilted></_>
    <_>
      <rects>
        <_>
          12 8 4 10 -1.</_>
        <_>
          12 8 2 5 2.</_>
        <_>
          14 13 2 5 2.</_></rects>
      <tilted>0</tilted></_>
    <_>
      <rects>
        <_>
          12 9 10 6 -1.</_>
        <_>
          12 9 5 3 2.</_>
        <_>
          17 12 5 3 2.</_></rects>
      <tilted>0</tilted></_>
    <_>
      <rects>
        <_>
          12 12 1 9 -1.</_>
        <_>
          12 15 1 3 3.</_></rects>
      <tilted>0</tilted></_>
    <_>
      <rects>
        <_>
          15 5 4 4 -1.</_>
        <_>
          17 5 2 4 2.</_></rects>
      <tilted>0</tilted></_>
    <_>
      <rects>
        <_>
          15 6 6 1 -1.</_>
        <_>
          17 6 2 1 3.</_></rects>
      <tilted>0</tilted></_>
    <_>
      <rects>
        <_>
          16 9 3 1 -1.</_>
        <_>
          17 9 1 1 3.</_></rects>
      <tilted>0</tilted></_>
    <_>
      <rects>
        <_>
          16 10 4 8 -1.</_>
        <_>
          16 10 2 4 2.</_>
        <_>
          18 14 2 4 2.</_></rects>
      <tilted>0</tilted></_>
    <_>
      <rects>
        <_>
          17 3 4 4 -1.</_>
        <_>
          17 3 2 2 2.</_>
        <_>
          19 5 2 2 2.</_></rects>
      <tilted>0</tilted></_>
    <_>
      <rects>
        <_>
          19 5 4 12 -1.</_>
        <_>
          19 5 2 6 2.</_>
        <_>
          21 11 2 6 2.</_></rects>
      <tilted>0</tilted></_>
    <_>
      <rects>
        <_>
          19 8 3 6 -1.</_>
        <_>
          20 8 1 6 3.</_></rects>
      <tilted>0</tilted></_></features></cascade>
</opencv_storage>
